file_name,0,1,2,3,4,5,6,7,8,9,10,11,12,13,14
confirm_transaction_1.wav,-338.1148681640625,134.86322021484375,-2.5606346130371094,52.531761169433594,-20.12311363220215,15.399702072143555,5.017843723297119,24.410545349121094,-3.683347702026367,4.8411431312561035,-19.878677368164062,3.663029909133911,-16.306474685668945,6420.74599847561,0.03477216884493828
confirm_transaction_2.wav,-271.16412353515625,132.12307739257812,-25.095985412597656,26.02117347717285,3.2175536155700684,22.38197135925293,-6.453958034515381,-10.616083145141602,-10.482687950134277,11.837434768676758,-22.613637924194336,-0.5698382258415222,-11.264570236206055,5330.375800075301,0.08308675140142441
confirm_transaction_3.wav,-435.8951416015625,169.17584228515625,20.76523780822754,16.53627586364746,20.308792114257812,3.1112890243530273,7.386096000671387,0.11719313263893127,-11.483689308166504,-5.225618839263916,5.127960681915283,4.241098403930664,-3.154205560684204,1649.2777193509614,0.044288840144872665
confirm_transaction_4.wav,-315.6536560058594,156.60610961914062,14.158580780029297,27.842004776000977,-4.530815601348877,-18.956951141357422,-19.474599838256836,3.4052703380584717,-14.22887897491455,-20.721540451049805,5.107500076293945,-1.9985312223434448,-13.342312812805176,3299.2359058277025,0.08494333177804947
yes_approve_1.wav,-307.21197509765625,121.92304992675781,17.146804809570312,56.38273620605469,-21.858318328857422,25.516462326049805,1.3099733591079712,12.796966552734375,0.37664103507995605,-3.076200485229492,-19.791772842407227,1.4233269691467285,-11.419769287109375,6219.922388980263,0.06273595243692398
yes_approve_2.wav,-306.5467224121094,87.11717224121094,-15.297052383422852,44.139503479003906,-0.9616789817810059,24.560253143310547,5.002262115478516,-13.625736236572266,-9.738875389099121,14.773214340209961,-11.210419654846191,-2.792173147201538,-14.750919342041016,6127.233072916667,0.07875202596187592
yes_approve_3.wav,-405.85797119140625,163.89022827148438,15.300405502319336,43.18096160888672,15.037775039672852,-8.331311225891113,10.712846755981445,-4.623807430267334,-14.52244758605957,-10.575002670288086,-3.4925758838653564,1.9316915273666382,0.7328928709030151,2263.677978515625,0.05539665371179581
yes_approve_4.wav,-428.7650451660156,120.89423370361328,4.788064479827881,53.976497650146484,4.647243976593018,9.299064636230469,-10.805952072143555,-5.42572021484375,-9.869174003601074,-9.031487464904785,4.9478960037231445,-9.376641273498535,-19.782997131347656,5832.527949892241,0.02924647182226181
